digraph Tree {
node [shape=box, style="filled", color="black", fontname="helvetica"] ;
edge [fontname="helvetica"] ;
0 [label="HANDSET_ASAD90 <= 0.5\ngini = 0.331\nsamples = 651\nvalue = [136, 515]\nclass = Bad", fillcolor="#6db7ec"] ;
1 [label="DROPPED_CALLS <= 11.5\ngini = 0.273\nsamples = 608\nvalue = [99, 509]\nclass = Bad", fillcolor="#60b0ea"] ;
0 -> 1 [labeldistance=2.5, labelangle=45, headlabel="True"] ;
2 [label="HANDSET_CAS30 <= 0.5\ngini = 0.233\nsamples = 586\nvalue = [79, 507]\nclass = Bad", fillcolor="#58ace9"] ;
1 -> 2 ;
3 [label="PEAK_CALLS_TIME <= 94.2\ngini = 0.194\nsamples = 562\nvalue = [61, 501]\nclass = Bad", fillcolor="#51a9e8"] ;
2 -> 3 ;
4 [label="gini = 0.499\nsamples = 46\nvalue = [22, 24]\nclass = Bad", fillcolor="#eff7fd"] ;
3 -> 4 ;
5 [label="SERVICE_DURATION <= 15.465\ngini = 0.14\nsamples = 516\nvalue = [39, 477]\nclass = Bad", fillcolor="#49a5e7"] ;
3 -> 5 ;
6 [label="SERVICE_DURATION <= 14.385\ngini = 0.368\nsamples = 74\nvalue = [18, 56]\nclass = Bad", fillcolor="#79bced"] ;
5 -> 6 ;
7 [label="PEAK_CALLS_NO <= 4.5\ngini = 0.211\nsamples = 50\nvalue = [6, 44]\nclass = Bad", fillcolor="#54aae9"] ;
6 -> 7 ;
8 [label="gini = 0.0\nsamples = 1\nvalue = [1, 0]\nclass = Good", fillcolor="#e58139"] ;
7 -> 8 ;
9 [label="gini = 0.183\nsamples = 49\nvalue = [5, 44]\nclass = Bad", fillcolor="#50a8e8"] ;
7 -> 9 ;
10 [label="gini = 0.5\nsamples = 24\nvalue = [12, 12]\nclass = Good", fillcolor="#ffffff"] ;
6 -> 10 ;
11 [label="AGE <= 12.5\ngini = 0.091\nsamples = 442\nvalue = [21, 421]\nclass = Bad", fillcolor="#43a2e6"] ;
5 -> 11 ;
12 [label="gini = 0.444\nsamples = 3\nvalue = [2, 1]\nclass = Good", fillcolor="#f2c09c"] ;
11 -> 12 ;
13 [label="WEEKEND_CALLS_NO <= 72.5\ngini = 0.083\nsamples = 439\nvalue = [19, 420]\nclass = Bad", fillcolor="#42a1e6"] ;
11 -> 13 ;
14 [label="gini = 0.079\nsamples = 438\nvalue = [18, 420]\nclass = Bad", fillcolor="#41a1e6"] ;
13 -> 14 ;
15 [label="gini = 0.0\nsamples = 1\nvalue = [1, 0]\nclass = Good", fillcolor="#e58139"] ;
13 -> 15 ;
16 [label="gini = 0.375\nsamples = 24\nvalue = [18, 6]\nclass = Good", fillcolor="#eeab7b"] ;
2 -> 16 ;
17 [label="gini = 0.165\nsamples = 22\nvalue = [20, 2]\nclass = Good", fillcolor="#e88e4d"] ;
1 -> 17 ;
18 [label="gini = 0.24\nsamples = 43\nvalue = [37, 6]\nclass = Good", fillcolor="#e99559"] ;
0 -> 18 [labeldistance=2.5, labelangle=-45, headlabel="False"] ;
}